net
{
	propagationenginegenerator1791944048146838126L = "edu.ucla.belief.approx.BeliefPropagationSettings@4f2b40c9";
	recoveryenginegenerator6944530267470113528l = "edu.ucla.util.SettingsImpl@24b9fbea";
	node_size = (130 55);
}

node s2
{
	states = ("A1" "A2" "B1" "B2" "C1" "C2" );
	position = (541 -233);
	diagnosistype = "AUXILIARY";
	DSLxSUBMODEL = "Root Submodel";
	ismapvariable = "false";
	ID = "variable6";
	label = "s2";
	excludepolicy = "include whole CPT";
}
node G0
{
	states = ("A" "B" "C" );
	position = (237 -359);
	diagnosistype = "AUXILIARY";
	DSLxSUBMODEL = "Root Submodel";
	ismapvariable = "false";
	ID = "variable7";
	label = "G0";
	excludepolicy = "include whole CPT";
}
node f2
{
	states = ("A1" "A2" "B1" "B2" "C1" "C2" );
	position = (716 -234);
	diagnosistype = "AUXILIARY";
	DSLxSUBMODEL = "Root Submodel";
	ismapvariable = "false";
	ID = "variable3";
	label = "f2";
	excludepolicy = "include whole CPT";
}
node a1
{
	states = ("CC" "CS" "SC" "SS" );
	position = (193 -109);
	diagnosistype = "AUXILIARY";
	DSLxSUBMODEL = "Root Submodel";
	ismapvariable = "false";
	ID = "variable0";
	label = "a1";
	excludepolicy = "include whole CPT";
}
node s1
{
	states = ("A1" "A2" "B1" "B2" "C1" "C2" );
	position = (193 -226);
	iscptvalid = "true";
	diagnosistype = "AUXILIARY";
	DSLxSUBMODEL = "Root Submodel";
	ismapvariable = "false";
	ID = "variable1";
	label = "s1";
	excludepolicy = "include whole CPT";
}
node a1_paste0
{
	states = ("CC" "CS" "SC" "SS" );
	position = (539 -105);
	diagnosistype = "AUXILIARY";
	ismapvariable = "false";
	ID = "variable0";
	label = "a1";
	excludepolicy = "include whole CPT";
}
potential ( s2 | a1_paste0 s1 )
{
	data = (((	0.16666666666666666	0.16666666666666666	0.16666666666666666	0.16666666666666666	0.16666666666666666	0.16666666666666666	)
		(	0.16666666666666666	0.16666666666666666	0.16666666666666666	0.16666666666666666	0.16666666666666666	0.16666666666666666	)
		(	0.16666666666666666	0.16666666666666666	0.16666666666666666	0.16666666666666666	0.16666666666666666	0.16666666666666666	)
		(	0.16666666666666666	0.16666666666666666	0.16666666666666666	0.16666666666666666	0.16666666666666666	0.16666666666666666	)
		(	0.16666666666666666	0.16666666666666666	0.16666666666666666	0.16666666666666666	0.16666666666666666	0.16666666666666666	)
		(	0.16666666666666666	0.16666666666666666	0.16666666666666666	0.16666666666666666	0.16666666666666666	0.16666666666666666	))
		((	0.2261904761904762	0.10714285714285714	0.2261904761904762	0.10714285714285714	0.2261904761904762	0.10714285714285714	)
		(	0.2261904761904762	0.10714285714285714	0.2261904761904762	0.10714285714285714	0.2261904761904762	0.10714285714285714	)
		(	0.2261904761904762	0.10714285714285714	0.2261904761904762	0.10714285714285714	0.2261904761904762	0.10714285714285714	)
		(	0.2261904761904762	0.10714285714285714	0.2261904761904762	0.10714285714285714	0.2261904761904762	0.10714285714285714	)
		(	0.2261904761904762	0.10714285714285714	0.2261904761904762	0.10714285714285714	0.2261904761904762	0.10714285714285714	)
		(	0.2261904761904762	0.10714285714285714	0.2261904761904762	0.10714285714285714	0.2261904761904762	0.10714285714285714	))
		((	0.10714285714285714	0.2261904761904762	0.10714285714285714	0.2261904761904762	0.10714285714285714	0.2261904761904762	)
		(	0.10714285714285714	0.2261904761904762	0.10714285714285714	0.2261904761904762	0.10714285714285714	0.2261904761904762	)
		(	0.10714285714285714	0.2261904761904762	0.10714285714285714	0.2261904761904762	0.10714285714285714	0.2261904761904762	)
		(	0.10714285714285714	0.2261904761904762	0.10714285714285714	0.2261904761904762	0.10714285714285714	0.2261904761904762	)
		(	0.10714285714285714	0.2261904761904762	0.10714285714285714	0.2261904761904762	0.10714285714285714	0.2261904761904762	)
		(	0.10714285714285714	0.2261904761904762	0.10714285714285714	0.2261904761904762	0.10714285714285714	0.2261904761904762	))
		((	0.16666666666666666	0.16666666666666666	0.16666666666666666	0.16666666666666666	0.16666666666666666	0.16666666666666666	)
		(	0.16666666666666666	0.16666666666666666	0.16666666666666666	0.16666666666666666	0.16666666666666666	0.16666666666666666	)
		(	0.16666666666666666	0.16666666666666666	0.16666666666666666	0.16666666666666666	0.16666666666666666	0.16666666666666666	)
		(	0.16666666666666666	0.16666666666666666	0.16666666666666666	0.16666666666666666	0.16666666666666666	0.16666666666666666	)
		(	0.16666666666666666	0.16666666666666666	0.16666666666666666	0.16666666666666666	0.16666666666666666	0.16666666666666666	)
		(	0.16666666666666666	0.16666666666666666	0.16666666666666666	0.16666666666666666	0.16666666666666666	0.16666666666666666	)));
}
potential ( G0 | )
{
	data = (	0.3333333333333333	0.3333333333333333	0.3333333333333333	);
}
potential ( f2 | s2 )
{
	data = ((	0.5	0.5	0.0	0.0	0.0	0.0	)
		(	0.5	0.5	0.0	0.0	0.0	0.0	)
		(	0.0	0.0	0.5	0.5	0.0	0.0	)
		(	0.0	0.0	0.0	1.0	0.0	0.0	)
		(	0.0	0.0	0.0	0.0	1.0	0.0	)
		(	0.0	0.0	0.0	0.0	0.0	1.0	));
}
potential ( a1 | )
{
	data = (	0.25	0.25	0.25	0.25	);
}
potential ( s1 | a1 )
{
	data = ((	0.16666666666666666	0.16666666666666666	0.16666666666666666	0.16666666666666666	0.16666666666666666	0.16666666666666666	)
		(	0.2380952380952381	0.09523809523809523	0.2380952380952381	0.09523809523809523	0.2380952380952381	0.09523809523809523	)
		(	0.09523809523809523	0.2380952380952381	0.09523809523809523	0.2380952380952381	0.09523809523809523	0.2380952380952381	)
		(	0.16666666666666666	0.16666666666666666	0.16666666666666666	0.16666666666666666	0.16666666666666666	0.16666666666666666	));
}
potential ( a1_paste0 | )
{
	data = (	0.25	0.25	0.25	0.25	);
}
