net
{
	propagationenginegenerator1791944048146838126L = "edu.ucla.belief.approx.BeliefPropagationSettings@33458cee";
	recoveryenginegenerator6944530267470113528l = "edu.ucla.util.SettingsImpl@34d1f4d0";
	node_size = (130.0 55.0);
}

node E0
{
	states = ("e01" "e02" "e03" "e04" "e05" "e06" );
	position = (-73 18);
	diagnosistype = "AUXILIARY";
	DSLxSUBMODEL = "Root Submodel";
	ismapvariable = "false";
	ID = "variable1";
	label = "E0";
	DSLxEXTRA_DEFINITIONxDIAGNOSIS_TYPE = "AUXILIARY";
	excludepolicy = "include whole CPT";
}
node R2_paste0
{
	states = ("r20" "r21" "r22" "r23" );
	position = (573 -95);
	diagnosistype = "AUXILIARY";
	ismapvariable = "false";
	ID = "variable4";
	label = "R2";
	DSLxEXTRA_DEFINITIONxDIAGNOSIS_TYPE = "AUXILIARY";
	excludepolicy = "include whole CPT";
}
node E1
{
	states = ("e11" "e12" "e13" "e14" "e15" "e16" );
	position = (94 14);
	diagnosistype = "AUXILIARY";
	DSLxSUBMODEL = "Root Submodel";
	ismapvariable = "false";
	ID = "variable2";
	label = "E1";
	DSLxEXTRA_DEFINITIONxDIAGNOSIS_TYPE = "AUXILIARY";
	excludepolicy = "include whole CPT";
}
node E5
{
	states = ("e31" "e32" "e33" "e34" "e35" "e36" );
	position = (737 -2);
	diagnosistype = "AUXILIARY";
	ismapvariable = "false";
	ID = "variable3";
	label = "E5";
	DSLxEXTRA_DEFINITIONxDIAGNOSIS_TYPE = "AUXILIARY";
	excludepolicy = "include whole CPT";
}
node R1
{
	states = ("r10" "r11" "r12" "r13" );
	position = (90 -86);
	diagnosistype = "AUXILIARY";
	DSLxSUBMODEL = "Root Submodel";
	ismapvariable = "false";
	ID = "variable4";
	label = "R1";
	DSLxEXTRA_DEFINITIONxDIAGNOSIS_TYPE = "AUXILIARY";
	excludepolicy = "include whole CPT";
}
node pop5
{
	states = ("pop34" "pop31" "pop32" "pop33" );
	position = (738 89);
	diagnosistype = "AUXILIARY";
	DSLxSUBMODEL = "Root Submodel";
	ismapvariable = "false";
	ID = "variable4";
	label = "pop5";
	DSLxEXTRA_DEFINITIONxDIAGNOSIS_TYPE = "AUXILIARY";
	excludepolicy = "include whole CPT";
}
node E2
{
	states = ("e21" "e22" "e23" "e24" "e25" "e26" );
	position = (254 10);
	diagnosistype = "AUXILIARY";
	DSLxSUBMODEL = "Root Submodel";
	ismapvariable = "false";
	ID = "variable3";
	label = "E2";
	DSLxEXTRA_DEFINITIONxDIAGNOSIS_TYPE = "AUXILIARY";
	excludepolicy = "include whole CPT";
}
node E3
{
	states = ("e31" "e32" "e33" "e34" "e35" "e36" );
	position = (420 6);
	diagnosistype = "AUXILIARY";
	ismapvariable = "false";
	ID = "variable3";
	label = "E3";
	DSLxEXTRA_DEFINITIONxDIAGNOSIS_TYPE = "AUXILIARY";
	excludepolicy = "include whole CPT";
}
node G0
{
	states = ("g4" "g1" "g2" "g3" );
	position = (-231 19);
	diagnosistype = "AUXILIARY";
	DSLxSUBMODEL = "Root Submodel";
	ismapvariable = "false";
	ID = "variable0";
	label = "G0";
	DSLxEXTRA_DEFINITIONxDIAGNOSIS_TYPE = "AUXILIARY";
	excludepolicy = "include whole CPT";
}
node E4
{
	states = ("e21" "e22" "e23" "e24" "e25" "e26" );
	position = (571 3);
	diagnosistype = "AUXILIARY";
	DSLxSUBMODEL = "Root Submodel";
	ismapvariable = "false";
	ID = "variable3";
	label = "E4";
	DSLxEXTRA_DEFINITIONxDIAGNOSIS_TYPE = "AUXILIARY";
	excludepolicy = "include whole CPT";
}
node pop0
{
	states = ("pop04" "pop01" "pop02" "pop03" );
	position = (-77 102);
	diagnosistype = "AUXILIARY";
	DSLxSUBMODEL = "Root Submodel";
	ismapvariable = "false";
	ID = "variable0";
	label = "pop0";
	DSLxEXTRA_DEFINITIONxDIAGNOSIS_TYPE = "AUXILIARY";
	excludepolicy = "include whole CPT";
}
node R3
{
	states = ("r30" "r31" "r32" "r33" );
	position = (422 -88);
	diagnosistype = "AUXILIARY";
	DSLxSUBMODEL = "Root Submodel";
	ismapvariable = "false";
	ID = "variable0";
	label = "R3";
	DSLxEXTRA_DEFINITIONxDIAGNOSIS_TYPE = "AUXILIARY";
	excludepolicy = "include whole CPT";
}
node R2
{
	states = ("r20" "r21" "r22" "r23" );
	position = (256 -87);
	diagnosistype = "AUXILIARY";
	ismapvariable = "false";
	ID = "variable4";
	label = "R2";
	DSLxEXTRA_DEFINITIONxDIAGNOSIS_TYPE = "AUXILIARY";
	excludepolicy = "include whole CPT";
}
potential ( E0 | G0 )
{
	data = ((	0.0	0.0	0.0	0.0	0.0	1.0	)
		(	0.5	0.5	0.0	0.0	0.0	0.0	)
		(	0.0	0.0	0.5	0.5	0.0	0.0	)
		(	0.0	0.0	0.0	0.0	1.0	0.0	));
}
potential ( R2_paste0 | E4 )
{
	data = ((	0.1428571	0.3571429	0.1428571	0.3571429	)
		(	0.1428571	0.1428571	0.3571429	0.3571429	)
		(	0.1428571	0.3571429	0.1428571	0.3571429	)
		(	0.1428571	0.1428571	0.3571429	0.3571429	)
		(	0.1428571	0.3571429	0.1428571	0.3571429	)
		(	0.25	0.25	0.25	0.25	));
}
potential ( E1 | E0 )
{
	data = ((	0.5	0.5	0.0	0.0	0.0	0.0	)
		(	0.5	0.5	0.0	0.0	0.0	0.0	)
		(	0.0	0.0	0.5	0.5	0.0	0.0	)
		(	0.0	0.0	0.0	1.0	0.0	0.0	)
		(	0.0	0.0	0.0	0.0	1.0	0.0	)
		(	0.0	0.0	0.0	0.0	0.0	1.0	));
}
potential ( E5 | E4 )
{
	data = ((	0.5	0.5	0.0	0.0	0.0	0.0	)
		(	0.5	0.5	0.0	0.0	0.0	0.0	)
		(	0.0	0.0	0.5	0.5	0.0	0.0	)
		(	0.0	0.0	0.0	1.0	0.0	0.0	)
		(	0.0	0.0	0.0	0.0	1.0	0.0	)
		(	0.0	0.0	0.0	0.0	0.0	1.0	));
}
potential ( R1 | E1 )
{
	data = ((	0.1428571	0.3571429	0.1428571	0.3571429	)
		(	0.1428571	0.1428571	0.3571429	0.3571429	)
		(	0.1428571	0.3571429	0.1428571	0.3571429	)
		(	0.1428571	0.1428571	0.3571429	0.3571429	)
		(	0.1428571	0.3571429	0.1428571	0.3571429	)
		(	0.25	0.25	0.25	0.25	));
}
potential ( pop5 | E5 )
{
	data = ((	0.0	1.0	0.0	0.0	)
		(	0.0	1.0	0.0	0.0	)
		(	0.0	0.0	1.0	0.0	)
		(	0.0	0.0	1.0	0.0	)
		(	0.0	0.0	0.0	1.0	)
		(	1.0	0.0	0.0	0.0	));
}
potential ( E2 | E1 )
{
	data = ((	0.5	0.5	0.0	0.0	0.0	0.0	)
		(	0.5	0.5	0.0	0.0	0.0	0.0	)
		(	0.0	0.0	0.5	0.5	0.0	0.0	)
		(	0.0	0.0	0.0	1.0	0.0	0.0	)
		(	0.0	0.0	0.0	0.0	1.0	0.0	)
		(	0.0	0.0	0.0	0.0	0.0	1.0	));
}
potential ( E3 | E2 )
{
	data = ((	0.5	0.5	0.0	0.0	0.0	0.0	)
		(	0.5	0.5	0.0	0.0	0.0	0.0	)
		(	0.0	0.0	0.5	0.5	0.0	0.0	)
		(	0.0	0.0	0.0	1.0	0.0	0.0	)
		(	0.0	0.0	0.0	0.0	1.0	0.0	)
		(	0.0	0.0	0.0	0.0	0.0	1.0	));
}
potential ( G0 | )
{
	data = (	0.25	0.25	0.25	0.25	);
}
potential ( E4 | E3 )
{
	data = ((	0.5	0.5	0.0	0.0	0.0	0.0	)
		(	0.5	0.5	0.0	0.0	0.0	0.0	)
		(	0.0	0.0	0.5	0.5	0.0	0.0	)
		(	0.0	0.0	0.0	1.0	0.0	0.0	)
		(	0.0	0.0	0.0	0.0	1.0	0.0	)
		(	0.0	0.0	0.0	0.0	0.0	1.0	));
}
potential ( pop0 | E0 )
{
	data = ((	0.0	1.0	0.0	0.0	)
		(	0.0	1.0	0.0	0.0	)
		(	0.0	0.0	1.0	0.0	)
		(	0.0	0.0	1.0	0.0	)
		(	0.0	0.0	0.0	1.0	)
		(	1.0	0.0	0.0	0.0	));
}
potential ( R3 | E3 )
{
	data = ((	0.14285714285714285	0.35714285714285715	0.14285714285714285	0.35714285714285715	)
		(	0.14285714285714285	0.14285714285714285	0.35714285714285715	0.35714285714285715	)
		(	0.14285714285714285	0.35714285714285715	0.14285714285714285	0.35714285714285715	)
		(	0.14285714285714285	0.14285714285714285	0.35714285714285715	0.35714285714285715	)
		(	0.14285714285714285	0.35714285714285715	0.14285714285714285	0.35714285714285715	)
		(	0.25	0.25	0.25	0.25	));
}
potential ( R2 | E2 )
{
	data = ((	0.1428571	0.3571429	0.1428571	0.3571429	)
		(	0.1428571	0.1428571	0.3571429	0.3571429	)
		(	0.1428571	0.3571429	0.1428571	0.3571429	)
		(	0.1428571	0.1428571	0.3571429	0.3571429	)
		(	0.1428571	0.3571429	0.1428571	0.3571429	)
		(	0.25	0.25	0.25	0.25	));
}
